<?xml version="1.0"?>
<opencv_storage>
<cascade>
  <stageType>BOOST</stageType>
  <featureType>HAAR</featureType>
  <height>30</height>
  <width>30</width>
  <stageParams>
    <boostType>GAB</boostType>
    <minHitRate>9.9500000476837158e-01</minHitRate>
    <maxFalseAlarm>5.0000000000000000e-01</maxFalseAlarm>
    <weightTrimRate>9.4999999999999996e-01</weightTrimRate>
    <maxDepth>1</maxDepth>
    <maxWeakCount>100</maxWeakCount></stageParams>
  <featureParams>
    <maxCatCount>0</maxCatCount>
    <featSize>1</featSize>
    <mode>BASIC</mode></featureParams>
  <stageNum>9</stageNum>
  <stages>
    <!-- stage 0 -->
    <_>
      <maxWeakCount>7</maxWeakCount>
      <stageThreshold>-5.4046398401260376e-01</stageThreshold>
      <weakClassifiers>
        <_>
          <internalNodes>
            0 -1 20 -2.3485135752707720e-03</internalNodes>
          <leafValues>
            -8.4285712242126465e-01 5.2411293983459473e-01</leafValues></_>
        <_>
          <internalNodes>
            0 -1 36 2.8080813586711884e-02</internalNodes>
          <leafValues>
            -2.9818567633628845e-01 8.9431136846542358e-01</leafValues></_>
        <_>
          <internalNodes>
            0 -1 19 1.3359278673306108e-03</internalNodes>
          <leafValues>
            3.7873280048370361e-01 -7.4018353223800659e-01</leafValues></_>
        <_>
          <internalNodes>
            0 -1 35 -8.3956355229020119e-03</internalNodes>
          <leafValues>
            6.1315280199050903e-01 -3.5783204436302185e-01</leafValues></_>
        <_>
          <internalNodes>
            0 -1 52 -3.7134150043129921e-03</internalNodes>
          <leafValues>
            -8.4748965501785278e-01 2.1031466126441956e-01</leafValues></_>
        <_>
          <internalNodes>
            0 -1 51 -4.9587190151214600e-03</internalNodes>
          <leafValues>
            -8.6422288417816162e-01 2.3136851191520691e-01</leafValues></_>
        <_>
          <internalNodes>
            0 -1 49 -1.8793737981468439e-03</internalNodes>
          <leafValues>
            -8.7111389636993408e-01 1.3799493014812469e-01</leafValues></_></weakClassifiers></_>
    <!-- stage 1 -->
    <_>
      <maxWeakCount>6</maxWeakCount>
      <stageThreshold>-4.7127652168273926e-01</stageThreshold>
      <weakClassifiers>
        <_>
          <internalNodes>
            0 -1 23 2.1746219135820866e-03</internalNodes>
          <leafValues>
            5.0388938188552856e-01 -8.4126985073089600e-01</leafValues></_>
        <_>
          <internalNodes>
            0 -1 23 -1.1901482939720154e-03</internalNodes>
          <leafValues>
            -7.9525148868560791e-01 3.5502001643180847e-01</leafValues></_>
        <_>
          <internalNodes>
            0 -1 6 5.2063789218664169e-02</internalNodes>
          <leafValues>
            -3.1666696071624756e-01 9.4797563552856445e-01</leafValues></_>
        <_>
          <internalNodes>
            0 -1 5 -1.5415111556649208e-02</internalNodes>
          <leafValues>
            6.9236642122268677e-01 -2.3120124638080597e-01</leafValues></_>
        <_>
          <internalNodes>
            0 -1 39 3.7877880968153477e-03</internalNodes>
          <leafValues>
            2.5696364045143127e-01 -8.1976914405822754e-01</leafValues></_>
        <_>
          <internalNodes>
            0 -1 40 -3.0815307982265949e-03</internalNodes>
          <leafValues>
            -7.9044854640960693e-01 3.0587783455848694e-01</leafValues></_></weakClassifiers></_>
    <!-- stage 2 -->
    <_>
      <maxWeakCount>7</maxWeakCount>
      <stageThreshold>-5.6948643922805786e-01</stageThreshold>
      <weakClassifiers>
        <_>
          <internalNodes>
            0 -1 55 -3.1722127459943295e-03</internalNodes>
          <leafValues>
            -7.7908557653427124e-01 5.1281863451004028e-01</leafValues></_>
        <_>
          <internalNodes>
            0 -1 37 2.3676857352256775e-02</internalNodes>
          <leafValues>
            -2.4405680596828461e-01 9.3331646919250488e-01</leafValues></_>
        <_>
          <internalNodes>
            0 -1 34 -1.0114980395883322e-03</internalNodes>
          <leafValues>
            -7.8126102685928345e-01 2.8828558325767517e-01</leafValues></_>
        <_>
          <internalNodes>
            0 -1 33 1.2168767862021923e-03</internalNodes>
          <leafValues>
            2.6073041558265686e-01 -8.1394684314727783e-01</leafValues></_>
        <_>
          <internalNodes>
            0 -1 3 -3.2764100469648838e-03</internalNodes>
          <leafValues>
            5.1179307699203491e-01 -3.9315611124038696e-01</leafValues></_>
        <_>
          <internalNodes>
            0 -1 21 1.9504647934809327e-03</internalNodes>
          <leafValues>
            2.1360649168491364e-01 -8.7231749296188354e-01</leafValues></_>
        <_>
          <internalNodes>
            0 -1 31 -1.3629673048853874e-03</internalNodes>
          <leafValues>
            -8.2075959444046021e-01 1.8982860445976257e-01</leafValues></_></weakClassifiers></_>
    <!-- stage 3 -->
    <_>
      <maxWeakCount>8</maxWeakCount>
      <stageThreshold>-6.8074959516525269e-01</stageThreshold>
      <weakClassifiers>
        <_>
          <internalNodes>
            0 -1 54 2.8501842170953751e-03</internalNodes>
          <leafValues>
            5.1495665311813354e-01 -6.8797308206558228e-01</leafValues></_>
        <_>
          <internalNodes>
            0 -1 1 5.5859051644802094e-02</internalNodes>
          <leafValues>
            -2.4475219845771790e-01 9.4754010438919067e-01</leafValues></_>
        <_>
          <internalNodes>
            0 -1 27 1.9258514512330294e-03</internalNodes>
          <leafValues>
            2.9558223485946655e-01 -7.6459211111068726e-01</leafValues></_>
        <_>
          <internalNodes>
            0 -1 26 -9.2830136418342590e-04</internalNodes>
          <leafValues>
            -7.8424477577209473e-01 2.1113958954811096e-01</leafValues></_>
        <_>
          <internalNodes>
            0 -1 53 -9.2947185039520264e-02</internalNodes>
          <leafValues>
            7.9544687271118164e-01 -2.5972333550453186e-01</leafValues></_>
        <_>
          <internalNodes>
            0 -1 0 -1.2265240773558617e-02</internalNodes>
          <leafValues>
            6.1134636402130127e-01 -3.0242615938186646e-01</leafValues></_>
        <_>
          <internalNodes>
            0 -1 30 -8.0118665937334299e-04</internalNodes>
          <leafValues>
            -8.7516194581985474e-01 2.0146869122982025e-01</leafValues></_>
        <_>
          <internalNodes>
            0 -1 42 5.2720893174409866e-02</internalNodes>
          <leafValues>
            1.8754649162292480e-01 -7.9157429933547974e-01</leafValues></_></weakClassifiers></_>
    <!-- stage 4 -->
    <_>
      <maxWeakCount>8</maxWeakCount>
      <stageThreshold>-7.4448060989379883e-01</stageThreshold>
      <weakClassifiers>
        <_>
          <internalNodes>
            0 -1 29 1.4723087660968304e-03</internalNodes>
          <leafValues>
            5.2409863471984863e-01 -8.1542575359344482e-01</leafValues></_>
        <_>
          <internalNodes>
            0 -1 4 5.9468828141689301e-02</internalNodes>
          <leafValues>
            -2.5275412201881409e-01 9.9305361509323120e-01</leafValues></_>
        <_>
          <internalNodes>
            0 -1 24 2.1267067641019821e-03</internalNodes>
          <leafValues>
            2.8338989615440369e-01 -8.6644560098648071e-01</leafValues></_>
        <_>
          <internalNodes>
            0 -1 14 -8.9088047388941050e-04</internalNodes>
          <leafValues>
            -6.8202036619186401e-01 2.6915025711059570e-01</leafValues></_>
        <_>
          <internalNodes>
            0 -1 46 -6.3180234283208847e-03</internalNodes>
          <leafValues>
            4.9907055497169495e-01 -3.9376330375671387e-01</leafValues></_>
        <_>
          <internalNodes>
            0 -1 32 -1.1117490939795971e-03</internalNodes>
          <leafValues>
            -7.4819076061248779e-01 2.4432305991649628e-01</leafValues></_>
        <_>
          <internalNodes>
            0 -1 38 -9.5423705875873566e-02</internalNodes>
          <leafValues>
            6.7316305637359619e-01 -3.1479999423027039e-01</leafValues></_>
        <_>
          <internalNodes>
            0 -1 7 8.0423336476087570e-03</internalNodes>
          <leafValues>
            2.3539933562278748e-01 -7.7226924896240234e-01</leafValues></_></weakClassifiers></_>
    <!-- stage 5 -->
    <_>
      <maxWeakCount>8</maxWeakCount>
      <stageThreshold>-1.2296365499496460e+00</stageThreshold>
      <weakClassifiers>
        <_>
          <internalNodes>
            0 -1 41 -1.8445451278239489e-03</internalNodes>
          <leafValues>
            -5.7729381322860718e-01 5.4242151975631714e-01</leafValues></_>
        <_>
          <internalNodes>
            0 -1 47 5.3976997733116150e-03</internalNodes>
          <leafValues>
            -2.7618354558944702e-01 8.4382379055023193e-01</leafValues></_>
        <_>
          <internalNodes>
            0 -1 16 1.2598629109561443e-03</internalNodes>
          <leafValues>
            3.4589266777038574e-01 -6.7823743820190430e-01</leafValues></_>
        <_>
          <internalNodes>
            0 -1 18 5.6140602100640535e-04</internalNodes>
          <leafValues>
            2.5196611881256104e-01 -7.7177548408508301e-01</leafValues></_>
        <_>
          <internalNodes>
            0 -1 50 -7.2049410082399845e-03</internalNodes>
          <leafValues>
            5.6152611970901489e-01 -3.7242192029953003e-01</leafValues></_>
        <_>
          <internalNodes>
            0 -1 25 2.3427237756550312e-03</internalNodes>
          <leafValues>
            3.0527669191360474e-01 -7.8147089481353760e-01</leafValues></_>
        <_>
          <internalNodes>
            0 -1 56 9.4762496883049607e-04</internalNodes>
          <leafValues>
            -3.0712333321571350e-01 8.1408905982971191e-01</leafValues></_>
        <_>
          <internalNodes>
            0 -1 11 -9.4385156407952309e-03</internalNodes>
          <leafValues>
            -6.8999493122100830e-01 2.9394206404685974e-01</leafValues></_></weakClassifiers></_>
    <!-- stage 6 -->
    <_>
      <maxWeakCount>8</maxWeakCount>
      <stageThreshold>-3.4067139029502869e-01</stageThreshold>
      <weakClassifiers>
        <_>
          <internalNodes>
            0 -1 44 -5.9413141570985317e-04</internalNodes>
          <leafValues>
            -6.2547856569290161e-01 5.6048488616943359e-01</leafValues></_>
        <_>
          <internalNodes>
            0 -1 45 9.9308518692851067e-03</internalNodes>
          <leafValues>
            -2.5706160068511963e-01 9.1335558891296387e-01</leafValues></_>
        <_>
          <internalNodes>
            0 -1 10 5.7241423055529594e-03</internalNodes>
          <leafValues>
            3.6882442235946655e-01 -8.7739634513854980e-01</leafValues></_>
        <_>
          <internalNodes>
            0 -1 28 -6.5095806494355202e-03</internalNodes>
          <leafValues>
            1. -2.6847919821739197e-01</leafValues></_>
        <_>
          <internalNodes>
            0 -1 2 2.4078015703707933e-03</internalNodes>
          <leafValues>
            3.5995259881019592e-01 -7.4164634943008423e-01</leafValues></_>
        <_>
          <internalNodes>
            0 -1 9 -2.5394582189619541e-03</internalNodes>
          <leafValues>
            -8.9228403568267822e-01 2.6383957266807556e-01</leafValues></_>
        <_>
          <internalNodes>
            0 -1 57 -4.2676910758018494e-02</internalNodes>
          <leafValues>
            7.4140626192092896e-01 -3.3742415904998779e-01</leafValues></_>
        <_>
          <internalNodes>
            0 -1 17 -5.9482757933437824e-03</internalNodes>
          <leafValues>
            -7.9765707254409790e-01 3.2254594564437866e-01</leafValues></_></weakClassifiers></_>
    <!-- stage 7 -->
    <_>
      <maxWeakCount>4</maxWeakCount>
      <stageThreshold>-3.7853610515594482e-01</stageThreshold>
      <weakClassifiers>
        <_>
          <internalNodes>
            0 -1 15 -3.8927518762648106e-03</internalNodes>
          <leafValues>
            -4.7731533646583557e-01 7.8067451715469360e-01</leafValues></_>
        <_>
          <internalNodes>
            0 -1 13 2.8304834850132465e-03</internalNodes>
          <leafValues>
            5.0783312320709229e-01 -8.1944924592971802e-01</leafValues></_>
        <_>
          <internalNodes>
            0 -1 43 -2.4680879432708025e-03</internalNodes>
          <leafValues>
            -8.3621770143508911e-01 4.4274947047233582e-01</leafValues></_>
        <_>
          <internalNodes>
            0 -1 8 3.9317819755524397e-04</internalNodes>
          <leafValues>
            4.5231974124908447e-01 -7.8251087665557861e-01</leafValues></_></weakClassifiers></_>
    <!-- stage 8 -->
    <_>
      <maxWeakCount>4</maxWeakCount>
      <stageThreshold>2.1196347661316395e-03</stageThreshold>
      <weakClassifiers>
        <_>
          <internalNodes>
            0 -1 48 2.2902559489011765e-02</internalNodes>
          <leafValues>
            7.6257354021072388e-01 -6.8041235208511353e-01</leafValues></_>
        <_>
          <internalNodes>
            0 -1 22 5.7862262474372983e-04</internalNodes>
          <leafValues>
            6.2699764966964722e-01 -8.7669748067855835e-01</leafValues></_>
        <_>
          <internalNodes>
            0 -1 12 2.2349451319314539e-04</internalNodes>
          <leafValues>
            6.9258797168731689e-01 -8.1195253133773804e-01</leafValues></_>
        <_>
          <internalNodes>
            0 -1 58 1.9491283455863595e-03</internalNodes>
          <leafValues>
            1. -5.7549905776977539e-01</leafValues></_></weakClassifiers></_></stages>
  <features>
    <_>
      <rects>
        <_>
          0 0 19 4 -1.</_>
        <_>
          0 2 19 2 2.</_></rects>
      <tilted>0</tilted></_>
    <_>
      <rects>
        <_>
          6 0 17 8 -1.</_>
        <_>
          6 4 17 4 2.</_></rects>
      <tilted>0</tilted></_>
    <_>
      <rects>
        <_>
          6 13 16 2 -1.</_>
        <_>
          6 14 16 1 2.</_></rects>
      <tilted>0</tilted></_>
    <_>
      <rects>
        <_>
          7 0 17 2 -1.</_>
        <_>
          7 1 17 1 2.</_></rects>
      <tilted>0</tilted></_>
    <_>
      <rects>
        <_>
          7 0 17 8 -1.</_>
        <_>
          7 4 17 4 2.</_></rects>
      <tilted>0</tilted></_>
    <_>
      <rects>
        <_>
          7 0 20 4 -1.</_>
        <_>
          7 2 20 2 2.</_></rects>
      <tilted>0</tilted></_>
    <_>
      <rects>
        <_>
          8 0 14 8 -1.</_>
        <_>
          8 4 14 4 2.</_></rects>
      <tilted>0</tilted></_>
    <_>
      <rects>
        <_>
          8 7 3 23 -1.</_>
        <_>
          9 7 1 23 3.</_></rects>
      <tilted>0</tilted></_>
    <_>
      <rects>
        <_>
          8 12 2 2 -1.</_>
        <_>
          8 13 2 1 2.</_></rects>
      <tilted>0</tilted></_>
    <_>
      <rects>
        <_>
          8 13 15 2 -1.</_>
        <_>
          8 14 15 1 2.</_></rects>
      <tilted>0</tilted></_>
    <_>
      <rects>
        <_>
          9 5 3 16 -1.</_>
        <_>
          10 5 1 16 3.</_></rects>
      <tilted>0</tilted></_>
    <_>
      <rects>
        <_>
          9 8 11 6 -1.</_>
        <_>
          9 11 11 3 2.</_></rects>
      <tilted>0</tilted></_>
    <_>
      <rects>
        <_>
          9 12 1 2 -1.</_>
        <_>
          9 13 1 1 2.</_></rects>
      <tilted>0</tilted></_>
    <_>
      <rects>
        <_>
          9 16 2 10 -1.</_>
        <_>
          9 16 1 5 2.</_>
        <_>
          10 21 1 5 2.</_></rects>
      <tilted>0</tilted></_>
    <_>
      <rects>
        <_>
          9 20 14 3 -1.</_>
        <_>
          9 21 14 1 3.</_></rects>
      <tilted>0</tilted></_>
    <_>
      <rects>
        <_>
          10 5 5 9 -1.</_>
        <_>
          10 8 5 3 3.</_></rects>
      <tilted>0</tilted></_>
    <_>
      <rects>
        <_>
          10 8 9 2 -1.</_>
        <_>
          10 9 9 1 2.</_></rects>
      <tilted>0</tilted></_>
    <_>
      <rects>
        <_>
          10 9 6 6 -1.</_>
        <_>
          12 9 2 6 3.</_></rects>
      <tilted>0</tilted></_>
    <_>
      <rects>
        <_>
          10 15 2 2 -1.</_>
        <_>
          11 15 1 2 2.</_></rects>
      <tilted>0</tilted></_>
    <_>
      <rects>
        <_>
          10 17 3 5 -1.</_>
        <_>
          11 17 1 5 3.</_></rects>
      <tilted>0</tilted></_>
    <_>
      <rects>
        <_>
          10 17 3 6 -1.</_>
        <_>
          11 17 1 6 3.</_></rects>
      <tilted>0</tilted></_>
    <_>
      <rects>
        <_>
          10 18 11 3 -1.</_>
        <_>
          10 19 11 1 3.</_></rects>
      <tilted>0</tilted></_>
    <_>
      <rects>
        <_>
          10 19 4 2 -1.</_>
        <_>
          10 19 2 1 2.</_>
        <_>
          12 20 2 1 2.</_></rects>
      <tilted>0</tilted></_>
    <_>
      <rects>
        <_>
          10 19 12 3 -1.</_>
        <_>
          10 20 12 1 3.</_></rects>
      <tilted>0</tilted></_>
    <_>
      <rects>
        <_>
          10 20 12 3 -1.</_>
        <_>
          10 21 12 1 3.</_></rects>
      <tilted>0</tilted></_>
    <_>
      <rects>
        <_>
          10 20 15 3 -1.</_>
        <_>
          10 21 15 1 3.</_></rects>
      <tilted>0</tilted></_>
    <_>
      <rects>
        <_>
          10 21 6 3 -1.</_>
        <_>
          10 22 6 1 3.</_></rects>
      <tilted>0</tilted></_>
    <_>
      <rects>
        <_>
          10 21 10 3 -1.</_>
        <_>
          10 22 10 1 3.</_></rects>
      <tilted>0</tilted></_>
    <_>
      <rects>
        <_>
          11 0 11 2 -1.</_>
        <_>
          11 1 11 1 2.</_></rects>
      <tilted>0</tilted></_>
    <_>
      <rects>
        <_>
          11 10 3 4 -1.</_>
        <_>
          12 10 1 4 3.</_></rects>
      <tilted>0</tilted></_>
    <_>
      <rects>
        <_>
          11 11 3 2 -1.</_>
        <_>
          12 11 1 2 3.</_></rects>
      <tilted>0</tilted></_>
    <_>
      <rects>
        <_>
          11 18 9 3 -1.</_>
        <_>
          11 19 9 1 3.</_></rects>
      <tilted>0</tilted></_>
    <_>
      <rects>
        <_>
          11 20 3 4 -1.</_>
        <_>
          12 20 1 4 3.</_></rects>
      <tilted>0</tilted></_>
    <_>
      <rects>
        <_>
          11 21 3 4 -1.</_>
        <_>
          12 21 1 4 3.</_></rects>
      <tilted>0</tilted></_>
    <_>
      <rects>
        <_>
          11 22 3 3 -1.</_>
        <_>
          12 22 1 3 3.</_></rects>
      <tilted>0</tilted></_>
    <_>
      <rects>
        <_>
          12 0 7 6 -1.</_>
        <_>
          12 2 7 2 3.</_></rects>
      <tilted>0</tilted></_>
    <_>
      <rects>
        <_>
          12 0 8 8 -1.</_>
        <_>
          12 4 8 4 2.</_></rects>
      <tilted>0</tilted></_>
    <_>
      <rects>
        <_>
          12 0 9 6 -1.</_>
        <_>
          12 3 9 3 2.</_></rects>
      <tilted>0</tilted></_>
    <_>
      <rects>
        <_>
          12 2 18 28 -1.</_>
        <_>
          21 2 9 28 2.</_></rects>
      <tilted>0</tilted></_>
    <_>
      <rects>
        <_>
          12 8 3 18 -1.</_>
        <_>
          13 8 1 18 3.</_></rects>
      <tilted>0</tilted></_>
    <_>
      <rects>
        <_>
          12 10 3 17 -1.</_>
        <_>
          13 10 1 17 3.</_></rects>
      <tilted>0</tilted></_>
    <_>
      <rects>
        <_>
          12 17 3 9 -1.</_>
        <_>
          13 17 1 9 3.</_></rects>
      <tilted>0</tilted></_>
    <_>
      <rects>
        <_>
          13 6 7 21 -1.</_>
        <_>
          13 13 7 7 3.</_></rects>
      <tilted>0</tilted></_>
    <_>
      <rects>
        <_>
          13 16 3 11 -1.</_>
        <_>
          14 16 1 11 3.</_></rects>
      <tilted>0</tilted></_>
    <_>
      <rects>
        <_>
          13 23 2 4 -1.</_>
        <_>
          13 23 1 2 2.</_>
        <_>
          14 25 1 2 2.</_></rects>
      <tilted>0</tilted></_>
    <_>
      <rects>
        <_>
          14 0 4 6 -1.</_>
        <_>
          14 3 4 3 2.</_></rects>
      <tilted>0</tilted></_>
    <_>
      <rects>
        <_>
          14 0 7 6 -1.</_>
        <_>
          14 2 7 2 3.</_></rects>
      <tilted>0</tilted></_>
    <_>
      <rects>
        <_>
          14 1 5 4 -1.</_>
        <_>
          14 3 5 2 2.</_></rects>
      <tilted>0</tilted></_>
    <_>
      <rects>
        <_>
          14 6 4 21 -1.</_>
        <_>
          14 13 4 7 3.</_></rects>
      <tilted>0</tilted></_>
    <_>
      <rects>
        <_>
          15 17 3 5 -1.</_>
        <_>
          16 17 1 5 3.</_></rects>
      <tilted>0</tilted></_>
    <_>
      <rects>
        <_>
          16 0 5 9 -1.</_>
        <_>
          16 3 5 3 3.</_></rects>
      <tilted>0</tilted></_>
    <_>
      <rects>
        <_>
          16 4 3 23 -1.</_>
        <_>
          17 4 1 23 3.</_></rects>
      <tilted>0</tilted></_>
    <_>
      <rects>
        <_>
          17 5 3 21 -1.</_>
        <_>
          18 5 1 21 3.</_></rects>
      <tilted>0</tilted></_>
    <_>
      <rects>
        <_>
          18 4 12 25 -1.</_>
        <_>
          24 4 6 25 2.</_></rects>
      <tilted>0</tilted></_>
    <_>
      <rects>
        <_>
          18 15 3 11 -1.</_>
        <_>
          19 15 1 11 3.</_></rects>
      <tilted>0</tilted></_>
    <_>
      <rects>
        <_>
          18 18 3 9 -1.</_>
        <_>
          19 18 1 9 3.</_></rects>
      <tilted>0</tilted></_>
    <_>
      <rects>
        <_>
          20 1 1 4 -1.</_>
        <_>
          20 3 1 2 2.</_></rects>
      <tilted>0</tilted></_>
    <_>
      <rects>
        <_>
          20 8 10 16 -1.</_>
        <_>
          25 8 5 16 2.</_></rects>
      <tilted>0</tilted></_>
    <_>
      <rects>
        <_>
          23 1 7 4 -1.</_>
        <_>
          23 3 7 2 2.</_></rects>
      <tilted>0</tilted></_></features></cascade>
</opencv_storage>
